<?xml version="1.0"?>
<opencv_storage>
<cascade>
  <stageType>BOOST</stageType>
  <featureType>HAAR</featureType>
  <height>20</height>
  <width>20</width>
  <stageParams>
    <boostType>GAB</boostType>
    <minHitRate>9.9500000476837158e-01</minHitRate>
    <maxFalseAlarm>5.0000000000000000e-01</maxFalseAlarm>
    <weightTrimRate>9.4999998807907104e-01</weightTrimRate>
    <maxDepth>1</maxDepth>
    <maxWeakCount>100</maxWeakCount></stageParams>
  <featureParams>
    <maxCatCount>0</maxCatCount>
    <featSize>1</featSize>
    <mode>BASIC</mode></featureParams>
  <stageNum>7</stageNum>
  <stages>
    <!-- stage 0 -->
    <_>
      <maxWeakCount>3</maxWeakCount>
      <stageThreshold>-1.3850334882736206e+00</stageThreshold>
      <weakClassifiers>
        <_>
          <internalNodes>
            0 -1 3 -5.3640496730804443e-01</internalNodes>
          <leafValues>
            2.6829269528388977e-01 -9.8189133405685425e-01</leafValues></_>
        <_>
          <internalNodes>
            0 -1 13 2.1789997816085815e-02</internalNodes>
          <leafValues>
            -9.5848822593688965e-01 5.6024277210235596e-01</leafValues></_>
        <_>
          <internalNodes>
            0 -1 0 3.8083001971244812e-02</internalNodes>
          <leafValues>
            -9.6338486671447754e-01 5.6082141399383545e-01</leafValues></_></weakClassifiers></_>
    <!-- stage 1 -->
    <_>
      <maxWeakCount>2</maxWeakCount>
      <stageThreshold>-7.8534853458404541e-01</stageThreshold>
      <weakClassifiers>
        <_>
          <internalNodes>
            0 -1 6 -1.5049220621585846e-01</internalNodes>
          <leafValues>
            4.8148149251937866e-01 -9.7023808956146240e-01</leafValues></_>
        <_>
          <internalNodes>
            0 -1 15 -1.3861770741641521e-02</internalNodes>
          <leafValues>
            1.8488956987857819e-01 -1.</leafValues></_></weakClassifiers></_>
    <!-- stage 2 -->
    <_>
      <maxWeakCount>3</maxWeakCount>
      <stageThreshold>-1.3613607883453369e+00</stageThreshold>
      <weakClassifiers>
        <_>
          <internalNodes>
            0 -1 20 -2.8681024909019470e-02</internalNodes>
          <leafValues>
            2.5000000000000000e-01 -9.6043521165847778e-01</leafValues></_>
        <_>
          <internalNodes>
            0 -1 4 1.3291569054126740e-01</internalNodes>
          <leafValues>
            -8.5340076684951782e-01 6.0009962320327759e-01</leafValues></_>
        <_>
          <internalNodes>
            0 -1 1 5.5706925690174103e-02</internalNodes>
          <leafValues>
            -7.5796002149581909e-01 5.4909503459930420e-01</leafValues></_></weakClassifiers></_>
    <!-- stage 3 -->
    <_>
      <maxWeakCount>3</maxWeakCount>
      <stageThreshold>-1.8067710399627686e+00</stageThreshold>
      <weakClassifiers>
        <_>
          <internalNodes>
            0 -1 12 2.0188914611935616e-02</internalNodes>
          <leafValues>
            -9.5083576440811157e-01 1.1111111193895340e-01</leafValues></_>
        <_>
          <internalNodes>
            0 -1 18 9.4628287479281425e-03</internalNodes>
          <leafValues>
            -9.5755571126937866e-01 -3.1501479446887970e-02</leafValues></_>
        <_>
          <internalNodes>
            0 -1 8 -1.2828481849282980e-03</internalNodes>
          <leafValues>
            3.5496291518211365e-01 -8.2443380355834961e-01</leafValues></_></weakClassifiers></_>
    <!-- stage 4 -->
    <_>
      <maxWeakCount>3</maxWeakCount>
      <stageThreshold>-1.6805427074432373e+00</stageThreshold>
      <weakClassifiers>
        <_>
          <internalNodes>
            0 -1 19 -7.9148001968860626e-02</internalNodes>
          <leafValues>
            5.5555558204650879e-01 -9.4541913270950317e-01</leafValues></_>
        <_>
          <internalNodes>
            0 -1 3 -5.3916710615158081e-01</internalNodes>
          <leafValues>
            1.9787164032459259e-01 -9.1704237461090088e-01</leafValues></_>
        <_>
          <internalNodes>
            0 -1 9 -5.1390916109085083e-02</internalNodes>
          <leafValues>
            2.8607228398323059e-01 -9.3299520015716553e-01</leafValues></_></weakClassifiers></_>
    <!-- stage 5 -->
    <_>
      <maxWeakCount>4</maxWeakCount>
      <stageThreshold>-1.9813609123229980e+00</stageThreshold>
      <weakClassifiers>
        <_>
          <internalNodes>
            0 -1 2 5.5421333760023117e-02</internalNodes>
          <leafValues>
            -9.4705879688262939e-01 6.6666670143604279e-02</leafValues></_>
        <_>
          <internalNodes>
            0 -1 11 5.9945806860923767e-03</internalNodes>
          <leafValues>
            -9.1394811868667603e-01 -2.2376537322998047e-01</leafValues></_>
        <_>
          <internalNodes>
            0 -1 17 -4.2119204998016357e-02</internalNodes>
          <leafValues>
            1.1483653634786606e-01 -9.4337671995162964e-01</leafValues></_>
        <_>
          <internalNodes>
            0 -1 16 -1.4839564682915807e-03</internalNodes>
          <leafValues>
            2.1589007973670959e-01 -9.2537325620651245e-01</leafValues></_></weakClassifiers></_>
    <!-- stage 6 -->
    <_>
      <maxWeakCount>4</maxWeakCount>
      <stageThreshold>-1.5255463123321533e+00</stageThreshold>
      <weakClassifiers>
        <_>
          <internalNodes>
            0 -1 5 2.4899612367153168e-01</internalNodes>
          <leafValues>
            -9.4541913270950317e-01 5.5555558204650879e-01</leafValues></_>
        <_>
          <internalNodes>
            0 -1 14 2.1671488881111145e-02</internalNodes>
          <leafValues>
            -8.5573917627334595e-01 8.1046022474765778e-02</leafValues></_>
        <_>
          <internalNodes>
            0 -1 10 -6.9955887738615274e-04</internalNodes>
          <leafValues>
            -1. 7.6726555824279785e-02</leafValues></_>
        <_>
          <internalNodes>
            0 -1 7 -3.6005713045597076e-02</internalNodes>
          <leafValues>
            1.9888541102409363e-01 -9.6546483039855957e-01</leafValues></_></weakClassifiers></_></stages>
  <features>
    <_>
      <rects>
        <_>
          0 1 6 12 -1.</_>
        <_>
          2 1 2 12 3.</_></rects>
      <tilted>0</tilted></_>
    <_>
      <rects>
        <_>
          0 2 4 8 -1.</_>
        <_>
          2 2 2 8 2.</_></rects>
      <tilted>0</tilted></_>
    <_>
      <rects>
        <_>
          0 9 15 3 -1.</_>
        <_>
          0 10 15 1 3.</_></rects>
      <tilted>0</tilted></_>
    <_>
      <rects>
        <_>
          1 1 18 18 -1.</_>
        <_>
          1 10 18 9 2.</_></rects>
      <tilted>0</tilted></_>
    <_>
      <rects>
        <_>
          1 6 14 6 -1.</_>
        <_>
          1 8 14 2 3.</_></rects>
      <tilted>0</tilted></_>
    <_>
      <rects>
        <_>
          1 7 14 12 -1.</_>
        <_>
          1 11 14 4 3.</_></rects>
      <tilted>0</tilted></_>
    <_>
      <rects>
        <_>
          1 8 17 6 -1.</_>
        <_>
          1 11 17 3 2.</_></rects>
      <tilted>0</tilted></_>
    <_>
      <rects>
        <_>
          2 1 10 16 -1.</_>
        <_>
          7 1 5 16 2.</_></rects>
      <tilted>0</tilted></_>
    <_>
      <rects>
        <_>
          2 3 2 3 -1.</_>
        <_>
          3 3 1 3 2.</_></rects>
      <tilted>0</tilted></_>
    <_>
      <rects>
        <_>
          2 5 15 5 -1.</_>
        <_>
          7 5 5 5 3.</_></rects>
      <tilted>0</tilted></_>
    <_>
      <rects>
        <_>
          2 16 18 3 -1.</_>
        <_>
          8 16 6 3 3.</_></rects>
      <tilted>0</tilted></_>
    <_>
      <rects>
        <_>
          3 0 3 2 -1.</_>
        <_>
          3 1 3 1 2.</_></rects>
      <tilted>0</tilted></_>
    <_>
      <rects>
        <_>
          4 4 2 4 -1.</_>
        <_>
          4 6 2 2 2.</_></rects>
      <tilted>0</tilted></_>
    <_>
      <rects>
        <_>
          5 0 11 2 -1.</_>
        <_>
          5 1 11 1 2.</_></rects>
      <tilted>0</tilted></_>
    <_>
      <rects>
        <_>
          5 4 1 9 -1.</_>
        <_>
          5 7 1 3 3.</_></rects>
      <tilted>0</tilted></_>
    <_>
      <rects>
        <_>
          7 2 9 4 -1.</_>
        <_>
          7 4 9 2 2.</_></rects>
      <tilted>0</tilted></_>
    <_>
      <rects>
        <_>
          8 4 6 2 -1.</_>
        <_>
          8 5 6 1 2.</_></rects>
      <tilted>0</tilted></_>
    <_>
      <rects>
        <_>
          8 6 8 14 -1.</_>
        <_>
          8 13 8 7 2.</_></rects>
      <tilted>0</tilted></_>
    <_>
      <rects>
        <_>
          10 0 9 2 -1.</_>
        <_>
          10 1 9 1 2.</_></rects>
      <tilted>0</tilted></_>
    <_>
      <rects>
        <_>
          14 1 4 10 -1.</_>
        <_>
          16 1 2 10 2.</_></rects>
      <tilted>0</tilted></_>
    <_>
      <rects>
        <_>
          18 4 2 7 -1.</_>
        <_>
          19 4 1 7 2.</_></rects>
      <tilted>0</tilted></_></features></cascade>
</opencv_storage>
