<?xml version="1.0"?>
<opencv_storage>
<cascade>
  <stageType>BOOST</stageType>
  <featureType>HAAR</featureType>
  <height>20</height>
  <width>20</width>
  <stageParams>
    <boostType>GAB</boostType>
    <minHitRate>9.9500000476837158e-01</minHitRate>
    <maxFalseAlarm>5.0000000000000000e-01</maxFalseAlarm>
    <weightTrimRate>9.4999998807907104e-01</weightTrimRate>
    <maxDepth>1</maxDepth>
    <maxWeakCount>100</maxWeakCount></stageParams>
  <featureParams>
    <maxCatCount>0</maxCatCount>
    <featSize>1</featSize>
    <mode>BASIC</mode></featureParams>
  <stageNum>7</stageNum>
  <stages>
    <!-- stage 0 -->
    <_>
      <maxWeakCount>2</maxWeakCount>
      <stageThreshold>-3.7981915473937988e-01</stageThreshold>
      <weakClassifiers>
        <_>
          <internalNodes>
            0 -1 6 -5.6928956508636475e-01</internalNodes>
          <leafValues>
            6.0000002384185791e-01 -9.8403191566467285e-01</leafValues></_>
        <_>
          <internalNodes>
            0 -1 16 9.2986047267913818e-02</internalNodes>
          <leafValues>
            -9.7981917858123779e-01 6.9140160083770752e-01</leafValues></_></weakClassifiers></_>
    <!-- stage 1 -->
    <_>
      <maxWeakCount>3</maxWeakCount>
      <stageThreshold>-1.3477213382720947e+00</stageThreshold>
      <weakClassifiers>
        <_>
          <internalNodes>
            0 -1 2 -7.5849823653697968e-02</internalNodes>
          <leafValues>
            -2.2666667401790619e-01 -9.9373042583465576e-01</leafValues></_>
        <_>
          <internalNodes>
            0 -1 15 1.0157026350498199e-01</internalNodes>
          <leafValues>
            -8.9395022392272949e-01 6.1055868864059448e-01</leafValues></_>
        <_>
          <internalNodes>
            0 -1 1 -8.7202534079551697e-02</internalNodes>
          <leafValues>
            5.3995925188064575e-01 -9.6134078502655029e-01</leafValues></_></weakClassifiers></_>
    <!-- stage 2 -->
    <_>
      <maxWeakCount>3</maxWeakCount>
      <stageThreshold>-1.4787327051162720e+00</stageThreshold>
      <weakClassifiers>
        <_>
          <internalNodes>
            0 -1 14 3.5039745271205902e-02</internalNodes>
          <leafValues>
            -9.4931775331497192e-01 1.</leafValues></_>
        <_>
          <internalNodes>
            0 -1 17 -5.7001926004886627e-02</internalNodes>
          <leafValues>
            3.5372865200042725e-01 -8.6853730678558350e-01</leafValues></_>
        <_>
          <internalNodes>
            0 -1 5 -6.3219457864761353e-02</internalNodes>
          <leafValues>
            4.1329517960548401e-01 -8.8314360380172729e-01</leafValues></_></weakClassifiers></_>
    <!-- stage 3 -->
    <_>
      <maxWeakCount>3</maxWeakCount>
      <stageThreshold>-1.7725665569305420e+00</stageThreshold>
      <weakClassifiers>
        <_>
          <internalNodes>
            0 -1 11 -1.0755862295627594e-01</internalNodes>
          <leafValues>
            4.0000000596046448e-01 -9.5107632875442505e-01</leafValues></_>
        <_>
          <internalNodes>
            0 -1 8 1.9083335995674133e-01</internalNodes>
          <leafValues>
            -9.3507951498031616e-01 -1.5685284137725830e-01</leafValues></_>
        <_>
          <internalNodes>
            0 -1 0 -2.3244012845680118e-04</internalNodes>
          <leafValues>
            -1. 1.1358926445245743e-01</leafValues></_></weakClassifiers></_>
    <!-- stage 4 -->
    <_>
      <maxWeakCount>4</maxWeakCount>
      <stageThreshold>-2.0988116264343262e+00</stageThreshold>
      <weakClassifiers>
        <_>
          <internalNodes>
            0 -1 12 1.6064932942390442e-01</internalNodes>
          <leafValues>
            -9.5102840662002563e-01 2.7272728085517883e-01</leafValues></_>
        <_>
          <internalNodes>
            0 -1 10 1.7292983829975128e-01</internalNodes>
          <leafValues>
            -8.4484142065048218e-01 3.4445926547050476e-01</leafValues></_>
        <_>
          <internalNodes>
            0 -1 18 -9.1763027012348175e-03</internalNodes>
          <leafValues>
            5.1866793632507324e-01 -7.0360851287841797e-01</leafValues></_>
        <_>
          <internalNodes>
            0 -1 2 -7.6153576374053955e-02</internalNodes>
          <leafValues>
            4.5235010981559753e-01 -8.2160979509353638e-01</leafValues></_></weakClassifiers></_>
    <!-- stage 5 -->
    <_>
      <maxWeakCount>3</maxWeakCount>
      <stageThreshold>-1.8355003595352173e+00</stageThreshold>
      <weakClassifiers>
        <_>
          <internalNodes>
            0 -1 4 1.2885031104087830e-01</internalNodes>
          <leafValues>
            -9.5307916402816772e-01 7.7777779102325439e-01</leafValues></_>
        <_>
          <internalNodes>
            0 -1 9 2.8977522253990173e-01</internalNodes>
          <leafValues>
            -9.2412674427032471e-01 -4.9467734992504120e-02</leafValues></_>
        <_>
          <internalNodes>
            0 -1 3 -9.2252812464721501e-05</internalNodes>
          <leafValues>
            -1. 4.1705593466758728e-02</leafValues></_></weakClassifiers></_>
    <!-- stage 6 -->
    <_>
      <maxWeakCount>3</maxWeakCount>
      <stageThreshold>-1.8264425992965698e+00</stageThreshold>
      <weakClassifiers>
        <_>
          <internalNodes>
            0 -1 13 2.9129552841186523e-01</internalNodes>
          <leafValues>
            -9.5107632875442505e-01 4.0000000596046448e-01</leafValues></_>
        <_>
          <internalNodes>
            0 -1 7 -2.4823927879333496e-01</internalNodes>
          <leafValues>
            8.7519839406013489e-02 -8.5990005731582642e-01</leafValues></_>
        <_>
          <internalNodes>
            0 -1 3 1.1517897655721754e-04</internalNodes>
          <leafValues>
            2.2257179021835327e-01 -9.6288615465164185e-01</leafValues></_></weakClassifiers></_></stages>
  <features>
    <_>
      <rects>
        <_>
          0 0 3 4 -1.</_>
        <_>
          0 2 3 2 2.</_></rects>
      <tilted>0</tilted></_>
    <_>
      <rects>
        <_>
          0 3 8 12 -1.</_>
        <_>
          4 3 4 12 2.</_></rects>
      <tilted>0</tilted></_>
    <_>
      <rects>
        <_>
          0 4 6 11 -1.</_>
        <_>
          3 4 3 11 2.</_></rects>
      <tilted>0</tilted></_>
    <_>
      <rects>
        <_>
          0 18 10 2 -1.</_>
        <_>
          5 18 5 2 2.</_></rects>
      <tilted>0</tilted></_>
    <_>
      <rects>
        <_>
          1 13 14 4 -1.</_>
        <_>
          1 15 14 2 2.</_></rects>
      <tilted>0</tilted></_>
    <_>
      <rects>
        <_>
          2 0 12 6 -1.</_>
        <_>
          2 3 12 3 2.</_></rects>
      <tilted>0</tilted></_>
    <_>
      <rects>
        <_>
          2 1 16 18 -1.</_>
        <_>
          2 7 16 6 3.</_></rects>
      <tilted>0</tilted></_>
    <_>
      <rects>
        <_>
          3 7 15 12 -1.</_>
        <_>
          3 11 15 4 3.</_></rects>
      <tilted>0</tilted></_>
    <_>
      <rects>
        <_>
          3 10 10 10 -1.</_>
        <_>
          3 15 10 5 2.</_></rects>
      <tilted>0</tilted></_>
    <_>
      <rects>
        <_>
          3 10 15 10 -1.</_>
        <_>
          3 15 15 5 2.</_></rects>
      <tilted>0</tilted></_>
    <_>
      <rects>
        <_>
          3 11 12 6 -1.</_>
        <_>
          3 14 12 3 2.</_></rects>
      <tilted>0</tilted></_>
    <_>
      <rects>
        <_>
          4 11 10 6 -1.</_>
        <_>
          4 13 10 2 3.</_></rects>
      <tilted>0</tilted></_>
    <_>
      <rects>
        <_>
          4 14 9 6 -1.</_>
        <_>
          4 17 9 3 2.</_></rects>
      <tilted>0</tilted></_>
    <_>
      <rects>
        <_>
          5 9 9 10 -1.</_>
        <_>
          5 14 9 5 2.</_></rects>
      <tilted>0</tilted></_>
    <_>
      <rects>
        <_>
          6 16 11 2 -1.</_>
        <_>
          6 17 11 1 2.</_></rects>
      <tilted>0</tilted></_>
    <_>
      <rects>
        <_>
          12 10 4 8 -1.</_>
        <_>
          12 14 4 4 2.</_></rects>
      <tilted>0</tilted></_>
    <_>
      <rects>
        <_>
          14 4 6 14 -1.</_>
        <_>
          17 4 3 14 2.</_></rects>
      <tilted>0</tilted></_>
    <_>
      <rects>
        <_>
          16 0 1 18 -1.</_>
        <_>
          16 6 1 6 3.</_></rects>
      <tilted>0</tilted></_>
    <_>
      <rects>
        <_>
          16 4 3 11 -1.</_>
        <_>
          17 4 1 11 3.</_></rects>
      <tilted>0</tilted></_></features></cascade>
</opencv_storage>
